{"metadata": {"approximator": "nn", "algo": {"name": "qlearn", "gamma": 0.9, "nstep": 2}, "eps": 1000, "alpha": {"name": "param", "x": 0.1}, "maxstep": false, "duration": "249.35827207565308", "time": "2025-01-23 23:12:13.755603"}, "bnn": {"biases": [[[0.11699007176366642], [0.11699007176366642], [0.11699007176366642], [0.11699007176366642], [0.11699007176366637], [0.11699007176366637]], [[-0.6891788150609828], [-0.5796134334813374], [-0.6658086754412611], [-0.5958836895931668], [-0.5683589202918963], [-0.6678581038045612]]], "weights": [[[-0.024619709564707607, 0.20331647760878524, 0.19312145911762627, 0.45023994933694766, 0.0679891782874869], [-0.024619709564707607, 0.20331647760878524, 0.19312145911762627, 0.45023994933694766, 0.0679891782874869], [-0.024619709564707607, 0.20331647760878524, 0.19312145911762627, 0.45023994933694766, 0.0679891782874869], [-0.024619709564707607, 0.20331647760878524, 0.19312145911762627, 0.45023994933694766, 0.0679891782874869], [-0.02461970956470761, 0.2033164776087852, 0.19312145911762618, 0.4502399493369477, 0.06798917828748682], [-0.02461970956470761, 0.2033164776087852, 0.19312145911762618, 0.4502399493369477, 0.06798917828748682]], [[-0.4015033762078676, -0.4015033762078676, -0.4015033762078676, -0.4015033762078676, -0.4015033762078676, -0.4015033762078676], [-0.4234358994501086, -0.4234358994501086, -0.4234358994501086, -0.4234358994501086, -0.4234358994501086, -0.4234358994501086], [-0.4224629175833808, -0.4224629175833808, -0.4224629175833808, -0.4224629175833808, -0.4224629175833807, -0.4224629175833807], [-0.4042087651122325, -0.4042087651122325, -0.4042087651122325, -0.4042087651122325, -0.4042087651122325, -0.4042087651122325], [-0.3983498348656215, -0.3983498348656215, -0.3983498348656215, -0.3983498348656215, -0.3983498348656215, -0.3983498348656215], [-0.4378717497525241, -0.4378717497525241, -0.4378717497525241, -0.4378717497525241, -0.4378717497525241, -0.4378717497525241]]]}, "tnn": {"biases": [[[0.11701657397609445], [0.11701657397609445], [0.11701657397609445], [0.11701657397609445], [0.1170165739760944], [0.1170165739760944]], [[-0.6893812810221751], [-0.5795591307531245], [-0.6660126703040989], [-0.5963403876340593], [-0.5677815238198545], [-0.6678221113859476]]], "weights": [[[-0.02450637463988304, 0.20352750411514492, 0.1931615830527149, 0.4501473012916897, 0.06802720517560247], [-0.02450637463988304, 0.20352750411514492, 0.1931615830527149, 0.4501473012916897, 0.06802720517560247], [-0.02450637463988304, 0.20352750411514492, 0.1931615830527149, 0.4501473012916897, 0.06802720517560247], [-0.02450637463988304, 0.20352750411514492, 0.1931615830527149, 0.4501473012916897, 0.06802720517560247], [-0.024506374639883043, 0.2035275041151449, 0.19316158305271483, 0.4501473012916898, 0.06802720517560239], [-0.024506374639883043, 0.2035275041151449, 0.19316158305271483, 0.4501473012916898, 0.06802720517560239]], [[-0.4016627938873001, -0.4016627938873001, -0.4016627938873001, -0.4016627938873001, -0.4016627938873001, -0.4016627938873001], [-0.42339291776339577, -0.42339291776339577, -0.42339291776339577, -0.42339291776339577, -0.42339291776339577, -0.42339291776339577], [-0.4226457421842578, -0.4226457421842578, -0.4226457421842578, -0.4226457421842578, -0.42264574218425777, -0.42264574218425777], [-0.4045665001000441, -0.4045665001000441, -0.4045665001000441, -0.4045665001000441, -0.4045665001000441, -0.4045665001000441], [-0.3978165643048681, -0.3978165643048681, -0.3978165643048681, -0.3978165643048681, -0.3978165643048681, -0.3978165643048681], [-0.4378433941585934, -0.4378433941585934, -0.4378433941585934, -0.4378433941585934, -0.4378433941585934, -0.4378433941585934]]]}}