{"metadata": {"approximator": "nn", "algo": {"name": "qlearn", "gamma": 0.9, "nstep": 2}, "eps": 1000, "alpha": {"name": "param", "x": 0.1}, "maxstep": false, "duration": "1013.0089588165283", "time": "2025-01-25 14:52:55.224926"}, "bnn": {"biases": [[[0.09577403873929045], [0.09577403873929045], [0.09577403873929045], [0.09577403873929045], [0.09577403873929045], [0.09577403873929045]], [[-0.8409442146433889], [-0.7185490277804294], [-0.8308874536711994], [-0.7416001760850561], [-0.7728443809447118], [-0.825946986771896]]], "weights": [[[0.35530884198384916, 0.24571279155634068, 0.24618120174273214, 0.2578008432641586, 0.09260414604728744], [0.35530884198384916, 0.24571279155634068, 0.24618120174273214, 0.2578008432641586, 0.09260414604728744], [0.35530884198384916, 0.24571279155634068, 0.24618120174273214, 0.2578008432641586, 0.09260414604728744], [0.35530884198384916, 0.24571279155634068, 0.24618120174273214, 0.2578008432641586, 0.09260414604728744], [0.3553088419838493, 0.24571279155634043, 0.2461812017427322, 0.25780084326415853, 0.09260414604728744], [0.3553088419838493, 0.24571279155634043, 0.2461812017427322, 0.25780084326415853, 0.09260414604728744]], [[-0.637134792076886, -0.637134792076886, -0.637134792076886, -0.637134792076886, -0.6371347920768862, -0.6371347920768862], [-0.6433966213011774, -0.6433966213011774, -0.6433966213011774, -0.6433966213011774, -0.6433966213011769, -0.6433966213011769], [-0.6182624025540961, -0.6182624025540961, -0.6182624025540961, -0.6182624025540961, -0.6182624025540961, -0.6182624025540961], [-0.6447267636504356, -0.6447267636504356, -0.6447267636504356, -0.6447267636504356, -0.6447267636504356, -0.6447267636504356], [-0.6229506719771928, -0.6229506719771928, -0.6229506719771928, -0.6229506719771928, -0.6229506719771928, -0.6229506719771928], [-0.6436716760627531, -0.6436716760627531, -0.6436716760627531, -0.6436716760627531, -0.643671676062753, -0.643671676062753]]]}, "tnn": {"biases": [[[0.09577387650762496], [0.09577387650762496], [0.09577387650762496], [0.09577387650762496], [0.09577387650762496], [0.09577387650762496]], [[-0.8409440967926926], [-0.7185483801362808], [-0.8308864392765409], [-0.7415998957345289], [-0.7727656752923356], [-0.8259468819907311]]], "weights": [[[0.35530778945874664, 0.2457122659132504, 0.24618068675208513, 0.257799869874166, 0.09260398381562195], [0.35530778945874664, 0.2457122659132504, 0.24618068675208513, 0.257799869874166, 0.09260398381562195], [0.35530778945874664, 0.2457122659132504, 0.24618068675208513, 0.257799869874166, 0.09260398381562195], [0.35530778945874664, 0.2457122659132504, 0.24618068675208513, 0.257799869874166, 0.09260398381562195], [0.3553077894587468, 0.24571226591325016, 0.24618068675208518, 0.2577998698741659, 0.09260398381562195], [0.3553077894587468, 0.24571226591325016, 0.24618068675208518, 0.2577998698741659, 0.09260398381562195]], [[-0.6371346745169479, -0.6371346745169479, -0.6371346745169479, -0.6371346745169479, -0.6371346745169482, -0.6371346745169482], [-0.6433959759909682, -0.6433959759909682, -0.6433959759909682, -0.6433959759909682, -0.6433959759909678, -0.6433959759909678], [-0.6182613911123195, -0.6182613911123195, -0.6182613911123195, -0.6182613911123195, -0.6182613911123195, -0.6182613911123195], [-0.6447264844470033, -0.6447264844470033, -0.6447264844470033, -0.6447264844470033, -0.6447264844470033, -0.6447264844470033], [-0.6228722206945712, -0.6228722206945712, -0.6228722206945712, -0.6228722206945712, -0.6228722206945712, -0.6228722206945712], [-0.6436715715791768, -0.6436715715791768, -0.6436715715791768, -0.6436715715791768, -0.6436715715791766, -0.6436715715791766]]]}, "batch": 20, "upd_interval": 100, "buf_size": 1000}